digraph Tree {
node [shape=box, fontname="helvetica"] ;
edge [fontname="helvetica"] ;
0 [label="Haralick 4 <= -0.701\ngini = 0.48\nsamples = 7\nvalue = [6, 4]"] ;
1 [label="gini = 0.0\nsamples = 2\nvalue = [0, 2]"] ;
0 -> 1 [labeldistance=2.5, labelangle=45, headlabel="True"] ;
2 [label="Haralick 11 <= 0.038\ngini = 0.375\nsamples = 5\nvalue = [6, 2]"] ;
0 -> 2 [labeldistance=2.5, labelangle=-45, headlabel="False"] ;
3 [label="gini = 0.0\nsamples = 3\nvalue = [5, 0]"] ;
2 -> 3 ;
4 [label="Haralick 7 <= 0.223\ngini = 0.444\nsamples = 2\nvalue = [1, 2]"] ;
2 -> 4 ;
5 [label="gini = 0.0\nsamples = 1\nvalue = [1, 0]"] ;
4 -> 5 ;
6 [label="gini = 0.0\nsamples = 1\nvalue = [0, 2]"] ;
4 -> 6 ;
}