digraph Tree {
node [shape=box, fontname="helvetica"] ;
edge [fontname="helvetica"] ;
0 [label="x[18] <= 1.845\ngini = 0.5\nsamples = 2349\nvalue = [1875, 1881]"] ;
1 [label="x[33] <= -0.402\ngini = 0.5\nsamples = 2263\nvalue = [1842, 1756]"] ;
0 -> 1 [labeldistance=2.5, labelangle=45, headlabel="True"] ;
2 [label="x[19] <= 0.246\ngini = 0.472\nsamples = 954\nvalue = [573, 932]"] ;
1 -> 2 ;
3 [label="x[15] <= 1.247\ngini = 0.493\nsamples = 477\nvalue = [334, 423]"] ;
2 -> 3 ;
4 [label="(...)"] ;
3 -> 4 ;
263 [label="(...)"] ;
3 -> 263 ;
276 [label="x[27] <= 0.372\ngini = 0.435\nsamples = 477\nvalue = [239, 509]"] ;
2 -> 276 ;
277 [label="(...)"] ;
276 -> 277 ;
366 [label="(...)"] ;
276 -> 366 ;
523 [label="x[28] <= 0.135\ngini = 0.477\nsamples = 1309\nvalue = [1269, 824]"] ;
1 -> 523 ;
524 [label="x[1] <= -0.738\ngini = 0.499\nsamples = 581\nvalue = [483, 435]"] ;
523 -> 524 ;
525 [label="(...)"] ;
524 -> 525 ;
562 [label="(...)"] ;
524 -> 562 ;
837 [label="x[27] <= 0.71\ngini = 0.443\nsamples = 728\nvalue = [786, 389]"] ;
523 -> 837 ;
838 [label="(...)"] ;
837 -> 838 ;
1143 [label="(...)"] ;
837 -> 1143 ;
1194 [label="x[19] <= -1.202\ngini = 0.33\nsamples = 86\nvalue = [33, 125]"] ;
0 -> 1194 [labeldistance=2.5, labelangle=-45, headlabel="False"] ;
1195 [label="x[19] <= -4.311\ngini = 0.306\nsamples = 84\nvalue = [29, 125]"] ;
1194 -> 1195 ;
1196 [label="x[29] <= -0.636\ngini = 0.483\nsamples = 23\nvalue = [18, 26]"] ;
1195 -> 1196 ;
1197 [label="(...)"] ;
1196 -> 1197 ;
1198 [label="(...)"] ;
1196 -> 1198 ;
1211 [label="x[23] <= -2.09\ngini = 0.18\nsamples = 61\nvalue = [11, 99]"] ;
1195 -> 1211 ;
1212 [label="(...)"] ;
1211 -> 1212 ;
1215 [label="(...)"] ;
1211 -> 1215 ;
1230 [label="gini = 0.0\nsamples = 2\nvalue = [4, 0]"] ;
1194 -> 1230 ;
}