digraph Tree {
node [shape=box, fontname="helvetica"] ;
edge [fontname="helvetica"] ;
0 [label="x[14] <= -0.267\ngini = 0.48\nsamples = 11\nvalue = [6, 9]"] ;
1 [label="x[6] <= 1.087\ngini = 0.245\nsamples = 6\nvalue = [6, 1]"] ;
0 -> 1 [labeldistance=2.5, labelangle=45, headlabel="True"] ;
2 [label="gini = 0.0\nsamples = 5\nvalue = [6, 0]"] ;
1 -> 2 ;
3 [label="gini = 0.0\nsamples = 1\nvalue = [0, 1]"] ;
1 -> 3 ;
4 [label="gini = 0.0\nsamples = 5\nvalue = [0, 8]"] ;
0 -> 4 [labeldistance=2.5, labelangle=-45, headlabel="False"] ;
}