digraph Tree {
node [shape=box, fontname="helvetica"] ;
edge [fontname="helvetica"] ;
0 [label="HU Moment 2 <= 0.408\ngini = 0.497\nsamples = 34\nvalue = [23, 27]"] ;
1 [label="Brown/Red <= -0.611\ngini = 0.49\nsamples = 27\nvalue = [20, 15]"] ;
0 -> 1 [labeldistance=2.5, labelangle=45, headlabel="True"] ;
2 [label="gini = 0.0\nsamples = 6\nvalue = [8, 0]"] ;
1 -> 2 ;
3 [label="Haralick 10 <= -0.291\ngini = 0.494\nsamples = 21\nvalue = [12, 15]"] ;
1 -> 3 ;
4 [label="(...)"] ;
3 -> 4 ;
5 [label="(...)"] ;
3 -> 5 ;
16 [label="Haralick 2 <= 0.5\ngini = 0.32\nsamples = 7\nvalue = [3, 12]"] ;
0 -> 16 [labeldistance=2.5, labelangle=-45, headlabel="False"] ;
17 [label="gini = 0.0\nsamples = 6\nvalue = [0, 12]"] ;
16 -> 17 ;
18 [label="gini = 0.0\nsamples = 1\nvalue = [3, 0]"] ;
16 -> 18 ;
}