digraph Tree {
node [shape=box, fontname="helvetica"] ;
edge [fontname="helvetica"] ;
0 [label="Haralick 2 <= -0.277\ngini = 0.48\nsamples = 6\nvalue = [6, 4]"] ;
1 [label="gini = 0.0\nsamples = 2\nvalue = [0, 3]"] ;
0 -> 1 [labeldistance=2.5, labelangle=45, headlabel="True"] ;
2 [label="Haralick 2 <= 0.343\ngini = 0.245\nsamples = 4\nvalue = [6, 1]"] ;
0 -> 2 [labeldistance=2.5, labelangle=-45, headlabel="False"] ;
3 [label="gini = 0.0\nsamples = 2\nvalue = [5, 0]"] ;
2 -> 3 ;
4 [label="HU Moment 4 <= 0.525\ngini = 0.5\nsamples = 2\nvalue = [1, 1]"] ;
2 -> 4 ;
5 [label="gini = 0.0\nsamples = 1\nvalue = [0, 1]"] ;
4 -> 5 ;
6 [label="gini = 0.0\nsamples = 1\nvalue = [1, 0]"] ;
4 -> 6 ;
}