digraph Tree {
node [shape=box, fontname="helvetica"] ;
edge [fontname="helvetica"] ;
0 [label="Haralick 4 <= -1.131\ngini = 0.18\nsamples = 18\nvalue = [3, 27]"] ;
1 [label="Haralick 11 <= 0.338\ngini = 0.5\nsamples = 4\nvalue = [3, 3]"] ;
0 -> 1 [labeldistance=2.5, labelangle=45, headlabel="True"] ;
2 [label="gini = 0.5\nsamples = 2\nvalue = [1, 1]"] ;
1 -> 2 ;
3 [label="gini = 0.5\nsamples = 2\nvalue = [2, 2]"] ;
1 -> 3 ;
4 [label="gini = 0.0\nsamples = 14\nvalue = [0, 24]"] ;
0 -> 4 [labeldistance=2.5, labelangle=-45, headlabel="False"] ;
}